FANN_FLO_2.1
num_layers=3
learning_rate=0.700000
connection_rate=1.000000
network_type=0
learning_momentum=0.000000
training_algorithm=2
train_error_function=1
train_stop_function=1
cascade_output_change_fraction=0.010000
quickprop_decay=-0.000100
quickprop_mu=1.750000
rprop_increase_factor=1.200000
rprop_decrease_factor=0.500000
rprop_delta_min=0.000000
rprop_delta_max=50.000000
rprop_delta_zero=0.100000
cascade_output_stagnation_epochs=12
cascade_candidate_change_fraction=0.010000
cascade_candidate_stagnation_epochs=12
cascade_max_out_epochs=150
cascade_min_out_epochs=50
cascade_max_cand_epochs=150
cascade_min_cand_epochs=50
cascade_num_candidate_groups=2
bit_fail_limit=1.00000000000000005551e-01
cascade_candidate_limit=1.00000000000000000000e+03
cascade_weight_multiplier=4.00000000000000022204e-01
cascade_activation_functions_count=10
cascade_activation_functions=3 5 7 8 10 11 14 15 16 17 
cascade_activation_steepnesses_count=4
cascade_activation_steepnesses=2.50000000000000000000e-01 5.00000000000000000000e-01 7.50000000000000000000e-01 1.00000000000000000000e+00 
layer_sizes=23 11 2 
scale_included=0
neurons (num_inputs, activation_function, activation_steepness)=(0, 0, 0.00000000000000000000e+00) (0, 0, 0.00000000000000000000e+00) (0, 0, 0.00000000000000000000e+00) (0, 0, 0.00000000000000000000e+00) (0, 0, 0.00000000000000000000e+00) (0, 0, 0.00000000000000000000e+00) (0, 0, 0.00000000000000000000e+00) (0, 0, 0.00000000000000000000e+00) (0, 0, 0.00000000000000000000e+00) (0, 0, 0.00000000000000000000e+00) (0, 0, 0.00000000000000000000e+00) (0, 0, 0.00000000000000000000e+00) (0, 0, 0.00000000000000000000e+00) (0, 0, 0.00000000000000000000e+00) (0, 0, 0.00000000000000000000e+00) (0, 0, 0.00000000000000000000e+00) (0, 0, 0.00000000000000000000e+00) (0, 0, 0.00000000000000000000e+00) (0, 0, 0.00000000000000000000e+00) (0, 0, 0.00000000000000000000e+00) (0, 0, 0.00000000000000000000e+00) (0, 0, 0.00000000000000000000e+00) (0, 0, 0.00000000000000000000e+00) (23, 6, 5.00000000000000000000e-01) (23, 6, 5.00000000000000000000e-01) (23, 6, 5.00000000000000000000e-01) (23, 6, 5.00000000000000000000e-01) (23, 6, 5.00000000000000000000e-01) (23, 6, 5.00000000000000000000e-01) (23, 6, 5.00000000000000000000e-01) (23, 6, 5.00000000000000000000e-01) (23, 6, 5.00000000000000000000e-01) (23, 6, 5.00000000000000000000e-01) (0, 6, 0.00000000000000000000e+00) (11, 6, 5.00000000000000000000e-01) (0, 6, 0.00000000000000000000e+00) 
connections (connected_to_neuron, weight)=(0, 3.64155444541455375340e-01) (1, 1.94957742522677140995e-01) (2, 1.40169927905520186329e-01) (3, 2.21475185881575303837e-01) (4, 2.61867756079157576465e-01) (5, 6.33111094849585914757e-02) (6, 1.38870032953129246556e-01) (7, 1.55509577782310381977e+00) (8, 2.90696559899344397770e-01) (9, 1.82553024538298219737e-01) (10, 9.18061257740395153526e-02) (11, 2.58833021844913191423e-01) (12, 2.36780829373941209548e-01) (13, 2.67631437096907731643e-01) (14, 2.45212452007281866972e-01) (15, 1.28355210966770438841e-01) (16, 2.07641933351637109073e-01) (17, -9.36101490418686371653e-02) (18, 2.63121299091920557434e-01) (19, 3.17905999366387914673e-01) (20, 1.09564066681424820970e+00) (21, 1.18498786984978954351e-01) (22, 4.02924088639191047001e-02) (0, -1.37888685840748537181e-02) (1, 2.63014959209393273110e-01) (2, 2.18092123084496353203e-01) (3, 3.08870824091862450356e-01) (4, 2.58348779790829374825e-01) (5, 3.18170363146762946727e-01) (6, 8.04246663086585211744e-02) (7, 4.00057819395212632685e+00) (8, 1.63091461668676301899e-01) (9, 1.79483976370140713152e-01) (10, -3.17791945370881012689e-01) (11, 6.31703438283890694738e-02) (12, -4.01642504772101241461e-02) (13, 2.66635339624901324118e-01) (14, 8.00142897676740377788e-02) (15, 1.91865502472257754008e-01) (16, 1.33745717784623352475e-01) (17, 4.94757867104894721866e-01) (18, -2.81541381682499231021e-03) (19, -1.61534543677226111180e-01) (20, 4.74736134761858163955e+00) (21, -8.69985585680264766895e-02) (22, -1.62435087755304574664e-01) (0, 2.88989359877109119878e+00) (1, 2.37518900603220020629e-02) (2, 1.14624691900627323493e-01) (3, 1.45362445682451265488e-02) (4, 1.48491574224846073493e-01) (5, 5.31604690563641790746e-02) (6, 3.27735166528229579508e-02) (7, -2.52008073791066600222e+00) (8, -7.84959900448240904813e-02) (9, -1.01629722423306895207e-01) (10, -1.35475690006626470208e+00) (11, -3.21799416222489087502e-01) (12, 8.85682404056384986468e-01) (13, 9.54197821107316268563e-02) (14, 2.52971739480257439003e-02) (15, -2.66705800797882065789e-03) (16, 5.78851815783231471446e-02) (17, 3.92651032092389051797e-01) (18, 4.73779648940291231440e-01) (19, 5.05942304085221228327e-01) (20, -2.41611876677883063991e+00) (21, 5.91558695585535643247e-02) (22, 9.61317657971352379498e-01) (0, 2.00824430694788169660e+00) (1, 4.18075556198418296638e-01) (2, 5.02740370372593559090e-01) (3, 5.34253547231018699470e-01) (4, 4.25774725416958488289e-01) (5, 8.16371051590692564659e-01) (6, 4.63027789407328249638e-01) (7, -3.83504013776970831273e+00) (8, 1.21418403228073623623e+00) (9, 1.68019924852617097422e+00) (10, 9.16337163879693328283e-01) (11, 4.26124411357543475543e-01) (12, 1.11631753933625987862e+00) (13, 1.67682644751913612069e+00) (14, 1.26786592447879353784e+00) (15, 1.16687661447106383328e+00) (16, 9.81278308753057326719e-01) (17, 7.40599240153423821198e-01) (18, 1.02957863626080348141e+00) (19, 1.09585507573206686338e+00) (20, -6.26634513649363977805e+00) (21, 5.73569383423145007228e-01) (22, 8.37644018781838139986e-01) (0, 1.47476617911070007061e+00) (1, 2.35173532337114368773e-02) (2, 1.99314756092445505287e-01) (3, 1.42132235464470069175e-01) (4, 1.16153588292019077644e-01) (5, 2.77443928730450872777e-02) (6, 4.35307692267899379313e-02) (7, -2.16788804580569394176e+00) (8, 5.12477722694955062366e-02) (9, -2.09255847403921960148e-02) (10, -1.35989502906216008782e+00) (11, -2.51786649354613034646e-01) (12, 6.44698748186423808981e-01) (13, -5.14267283591818072375e-02) (14, 1.89548163238920687468e-02) (15, -7.18523292437998339910e-02) (16, -1.59012776756621218577e-02) (17, 4.59727065924342537251e-01) (18, 3.52005398393912705135e-01) (19, 3.31335432244219407760e-01) (20, -1.14213282636249280344e+00) (21, -8.49167513917949978719e-02) (22, 3.29866462183883712989e-01) (0, -1.63617239158488132489e+01) (1, -7.72304449873423420891e-02) (2, -8.07637040214991414055e-02) (3, -1.56183059205338953257e-01) (4, -1.36528736789748667002e-01) (5, 4.42605891145267715814e-01) (6, 1.38001010440354343611e-01) (7, 1.74146456650825509627e+00) (8, 5.32751645903616233291e-01) (9, 5.44131934962695407165e-01) (10, 1.47170786973461220626e+00) (11, 5.45799404702609347595e-01) (12, 1.97788507030513344143e-01) (13, 5.57595329903207592714e-01) (14, 3.97907222233854107607e-01) (15, -7.94852313808795674088e-02) (16, 3.42710495540249682200e-01) (17, 5.18115875390076419116e-01) (18, 3.42249733058157090682e-01) (19, 3.04201681760492448348e-01) (20, 1.64774562425347337324e+00) (21, -4.42704625210783436762e-02) (22, -3.01092955403520545765e-01) (0, 2.82731643310784885870e+00) (1, 4.70117086142465695486e-02) (2, 9.53915470808908427802e-02) (3, 8.04822573036119565115e-02) (4, 1.29614898532793062363e-02) (5, 1.33197802127595993360e-01) (6, 4.27491884210114345133e-02) (7, -2.39778129770556880374e+00) (8, -2.73782343362949723287e-03) (9, -1.96024194497898734957e-01) (10, -1.39788489877594335198e+00) (11, -1.77666731306231229226e-01) (12, 8.27391929939582770892e-01) (13, 7.74097916570115618384e-02) (14, -3.50802301457166162968e-02) (15, -4.08704203834766299774e-02) (16, 1.68390321588181499091e-02) (17, 4.54153518559750446482e-01) (18, 4.31090062429593690041e-01) (19, 2.73805833222191596921e-01) (20, -2.28062020581376945216e+00) (21, 4.88881350309656875774e-02) (22, 8.97978961014717635969e-01) (0, 8.46666847990063309304e-01) (1, 1.30199211317256452469e-01) (2, 1.69507006782248975663e-01) (3, 1.00995550531104497094e-01) (4, 1.98666999715522291092e-01) (5, -1.87618388976225264342e-01) (6, 2.55851367718972141918e-02) (7, 6.27549378287556525180e+00) (8, -1.49551386990714380021e-01) (9, -2.59100091881344141154e-01) (10, 1.39920108827799793971e+00) (11, 5.78237902142208159972e-01) (12, 1.13448678280657702655e-04) (13, -1.43296508025581859069e-01) (14, -1.04174800678920237429e-01) (15, 3.40554065066812072793e-02) (16, 2.58722974172747810506e-01) (17, -4.79455390941929959769e-02) (18, -2.35454036803220689844e-01) (19, 3.75209139573828703851e-02) (20, 5.26387596370284516212e+00) (21, 4.88026598177740411622e-02) (22, -2.13819979585675806755e-01) (0, 7.35086118505505203835e-01) (1, 1.58914561051085950760e-01) (2, 1.61554942506507398514e-01) (3, 8.22314942657503961110e-02) (4, 1.89104432839110853104e-01) (5, -7.51340158239693495235e-02) (6, 3.40726668245591168827e-02) (7, 6.12823602270844336459e+00) (8, -2.11792548424789894845e-01) (9, -1.66393918222973336007e-01) (10, 1.52708992051929470790e+00) (11, 4.25773437835376966643e-01) (12, 7.95562403190390593499e-02) (13, -1.34575573634560186065e-01) (14, -1.33482538625430552370e-01) (15, -5.55728801530364080463e-02) (16, 2.18582337907470086735e-01) (17, -5.16980091106724881644e-02) (18, -1.39841745556568058939e-01) (19, -2.64659586311553951532e-01) (20, 7.24298103305646190364e+00) (21, 1.64259188779432407923e-01) (22, -3.03124367155103435767e-01) (0, 8.19524159358051895730e-01) (1, 2.09491804744852475051e-02) (2, 1.59229456683601222622e-01) (3, -1.26988894734727311708e-02) (4, 1.23797117969001585491e-01) (5, 7.01411799253926354636e-02) (6, 2.99933025843895847973e-02) (7, 3.93080143140674209690e+00) (8, -1.65496657648253747697e-01) (9, -5.35256444002870646059e-02) (10, 1.95213078659286343175e+00) (11, 5.25953580429588618550e-01) (12, 9.46296738374487883538e-02) (13, -2.03320723064297353977e-01) (14, 1.43045405896191409750e-02) (15, 1.60695947902631391946e-01) (16, 3.52393342715095037043e-01) (17, -1.12047666680645981174e-02) (18, 8.38627951133505827874e-02) (19, 6.35583170176218237302e-02) (20, 5.79547237320284747142e+00) (21, 1.68684639938909641810e-01) (22, -2.40639938868550895545e-01) (23, 2.45528146838013910935e-01) (24, 1.02621930008760534059e-01) (25, -7.98543948155098354258e-02) (26, -1.01064547411662861154e-01) (27, -2.40475929354715178832e-01) (28, 7.09714667024518686134e-01) (29, -5.08028413575344062192e-02) (30, 4.30479999806137103580e-01) (31, 5.81047616246722631317e-01) (32, 8.11424866255177068552e-01) (33, 3.42607920892971928861e-01) 
